digraph Tree {
node [shape=box] ;
0 [label="X[3] <= 0.352\nentropy = 1.0\nsamples = 676\nvalue = [338, 338]"] ;
1 [label="X[36] <= 1.157\nentropy = 0.997\nsamples = 625\nvalue = [332, 293]"] ;
0 -> 1 [labeldistance=2.5, labelangle=45, headlabel="True"] ;
2 [label="X[38] <= 0.968\nentropy = 0.998\nsamples = 622\nvalue = [329, 293]"] ;
1 -> 2 ;
3 [label="X[31] <= 2.162\nentropy = 0.993\nsamples = 590\nvalue = [323, 267]"] ;
2 -> 3 ;
4 [label="entropy = 0.995\nsamples = 581\nvalue = [315, 266]"] ;
3 -> 4 ;
5 [label="entropy = 0.503\nsamples = 9\nvalue = [8, 1]"] ;
3 -> 5 ;
6 [label="X[1] <= 0.063\nentropy = 0.696\nsamples = 32\nvalue = [6, 26]"] ;
2 -> 6 ;
7 [label="entropy = 0.0\nsamples = 25\nvalue = [0, 25]"] ;
6 -> 7 ;
8 [label="entropy = 0.592\nsamples = 7\nvalue = [6, 1]"] ;
6 -> 8 ;
9 [label="entropy = 0.0\nsamples = 3\nvalue = [3, 0]"] ;
1 -> 9 ;
10 [label="X[53] <= 0.103\nentropy = 0.523\nsamples = 51\nvalue = [6, 45]"] ;
0 -> 10 [labeldistance=2.5, labelangle=-45, headlabel="False"] ;
11 [label="X[35] <= 3.711\nentropy = 0.482\nsamples = 48\nvalue = [5, 43]"] ;
10 -> 11 ;
12 [label="X[17] <= -0.192\nentropy = 0.42\nsamples = 47\nvalue = [4, 43]"] ;
11 -> 12 ;
13 [label="entropy = 0.991\nsamples = 9\nvalue = [4, 5]"] ;
12 -> 13 ;
14 [label="entropy = 0.0\nsamples = 38\nvalue = [0, 38]"] ;
12 -> 14 ;
15 [label="entropy = 0.0\nsamples = 1\nvalue = [1, 0]"] ;
11 -> 15 ;
16 [label="X[6] <= 0.208\nentropy = 0.918\nsamples = 3\nvalue = [1, 2]"] ;
10 -> 16 ;
17 [label="entropy = 0.0\nsamples = 2\nvalue = [0, 2]"] ;
16 -> 17 ;
18 [label="entropy = 0.0\nsamples = 1\nvalue = [1, 0]"] ;
16 -> 18 ;
}